svm_type epsilon_svr
kernel_type rbf
gamma 0.03125
nr_class 2
total_sv 1184
rho -7.174501450675454
SV
-8.0 1:112.0 2:52.0 3:0.0 4:95.0 
-7.199579671133717 1:124.0 2:40.0 3:0.0 4:103.0 
-5.245705264119766 1:110.0 2:47.0 3:0.0 4:102.0 
-8.0 1:112.0 2:49.0 3:0.0 4:103.0 
-1.8177569179601158 1:129.0 2:41.0 3:0.0 4:103.0 
-7.260451251294974 1:113.0 2:34.0 3:0.0 4:102.0 
-4.922629962691396 1:92.0 2:50.0 3:0.0 4:101.0 
-8.0 1:102.0 2:47.0 3:0.0 4:97.0 
-8.0 1:101.0 2:47.0 3:0.0 4:100.0 
-8.0 1:103.0 2:54.0 3:0.0 4:93.0 
-8.0 1:115.0 2:47.0 3:0.0 4:76.0 
-8.0 1:116.0 2:42.0 3:0.0 4:84.0 
-8.0 1:110.0 2:48.0 3:0.0 4:94.0 
3.0792146830322817 1:82.0 2:52.0 3:0.0 4:96.0 
1.8139220634782536 1:87.0 2:60.0 3:0.0 4:45.0 
-8.0 1:104.0 2:76.0 3:1.0 4:63.0 
5.897454457420068 1:99.0 2:49.0 3:0.0 4:97.0 
-1.0747683542708897 1:107.0 2:80.0 3:32700.0 4:50.0 
1.7633592983065411 1:101.0 2:84.0 3:32700.0 4:19.0 
6.147287243647145 1:105.0 2:72.0 3:0.0 4:64.0 
1.8973581147581566 1:102.0 2:77.0 3:0.0 4:62.0 
-8.0 1:97.0 2:59.0 3:0.0 4:91.0 
0.24184053586693524 1:103.0 2:65.0 3:0.0 4:91.0 
-8.0 1:88.0 2:69.0 3:0.0 4:81.0 
-3.78460980943626 1:96.0 2:64.0 3:0.0 4:88.0 
3.6226530951926725 1:99.0 2:75.0 3:12.0 4:22.0 
-0.11530434401486778 1:98.0 2:72.0 3:26.0 4:82.0 
8.0 1:135.0 2:68.0 3:0.0 4:73.0 
-6.297887045397373 1:145.0 2:64.0 3:6.0 4:91.0 
-8.0 1:109.0 2:68.0 3:0.0 4:95.0 
-6.274520473191171 1:135.0 2:40.0 3:0.0 4:104.0 
-4.885195572475413 1:154.0 2:31.0 3:0.0 4:87.0 
-2.089846586620266 1:161.0 2:29.0 3:0.0 4:105.0 
-8.0 1:159.0 2:32.0 3:0.0 4:96.0 
-7.759611140325656 1:161.0 2:42.0 3:0.0 4:103.0 
-8.0 1:162.0 2:35.0 3:0.0 4:105.0 
-8.0 1:149.0 2:47.0 3:0.0 4:100.0 
1.9664367674025245 1:150.0 2:48.0 3:0.0 4:100.0 
5.752913257804961 1:130.0 2:53.0 3:0.0 4:102.0 
-6.046163040764661 1:142.0 2:49.0 3:0.0 4:82.0 
-8.0 1:162.0 2:39.0 3:0.0 4:104.0 
-6.0087720263654605 1:132.0 2:49.0 3:0.0 4:98.0 
8.0 1:151.0 2:40.0 3:0.0 4:103.0 
-8.0 1:155.0 2:41.0 3:0.0 4:102.0 
-5.429112818016372 1:139.0 2:42.0 3:0.0 4:103.0 
4.496880354113344 1:153.0 2:37.0 3:0.0 4:102.0 
-1.9686286731622233 1:139.0 2:43.0 3:0.0 4:100.0 
-5.282234062796352 1:130.0 2:49.0 3:0.0 4:105.0 
8.0 1:157.0 2:39.0 3:0.0 4:100.0 
-4.45469938326286 1:138.0 2:47.0 3:0.0 4:98.0 
-1.2962526067693032 1:147.0 2:40.0 3:0.0 4:104.0 
-8.0 1:151.0 2:34.0 3:0.0 4:102.0 
1.8600577543835422 1:150.0 2:30.0 3:0.0 4:103.0 
8.0 1:135.0 2:40.0 3:0.0 4:102.0 
-8.0 1:136.0 2:36.0 3:0.0 4:102.0 
-3.154542965479765 1:147.0 2:36.0 3:0.0 4:103.0 
8.0 1:110.0 2:48.0 3:0.0 4:102.0 
-6.7587303236489165 1:105.0 2:53.0 3:0.0 4:105.0 
6.0061703794070675 1:118.0 2:47.0 3:0.0 4:103.0 
6.691283031919188 1:199.0 2:30.0 3:0.0 4:89.0 
-3.0718168446793257 1:139.0 2:51.0 3:0.0 4:31.0 
-4.445805542041928 1:193.0 2:54.0 3:32700.0 4:98.0 
-3.42053529705345 1:201.0 2:39.0 3:0.0 4:94.0 
-8.0 1:168.0 2:66.0 3:0.0 4:63.0 
-7.145153710299991 1:174.0 2:64.0 3:0.0 4:71.0 
-7.241490202683931 1:129.0 2:50.0 3:0.0 4:69.0 
-4.069786223896733 1:158.0 2:64.0 3:32700.0 4:73.0 
-2.0333686047774067 1:182.0 2:52.0 3:0.0 4:38.0 
-8.0 1:179.0 2:47.0 3:0.0 4:87.0 
-8.0 1:170.0 2:41.0 3:0.0 4:104.0 
-4.722995702847546 1:190.0 2:39.0 3:0.0 4:84.0 
0.32460399927486266 1:148.0 2:40.0 3:0.0 4:106.0 
-8.0 1:159.0 2:35.0 3:0.0 4:100.0 
3.364669858158651 1:170.0 2:39.0 3:0.0 4:88.0 
-0.3978032954191215 1:155.0 2:42.0 3:0.0 4:98.0 
-3.0846717653611107 1:174.0 2:40.0 3:0.0 4:72.0 
-8.0 1:178.0 2:36.0 3:0.0 4:101.0 
-8.0 1:170.0 2:36.0 3:0.0 4:107.0 
-8.0 1:172.0 2:34.0 3:0.0 4:107.0 
7.544487116324505 1:164.0 2:38.0 3:0.0 4:106.0 
6.502905877867445 1:169.0 2:37.0 3:0.0 4:104.0 
-1.0898463167878543 1:159.0 2:43.0 3:0.0 4:53.0 
-8.0 1:179.0 2:33.0 3:0.0 4:104.0 
-5.119894897261926 1:122.0 2:62.0 3:0.0 4:54.0 
-6.143832281592884 1:137.0 2:59.0 3:0.0 4:45.0 
2.72615586114295 1:99.0 2:72.0 3:32700.0 4:64.0 
-1.4155235693353627 1:122.0 2:51.0 3:0.0 4:104.0 
0.23486123301405337 1:107.0 2:75.0 3:12.0 4:21.0 
-5.0746991559217065 1:91.0 2:87.0 3:149.0 4:0.0 
-3.0748722034124287 1:112.0 2:73.0 3:73.0 4:22.0 
2.9552223433735176 1:197.0 2:47.0 3:0.0 4:104.0 
-3.046816368715925 1:200.0 2:47.0 3:0.0 4:62.0 
-2.6167586634976665 1:205.0 2:49.0 3:0.0 4:80.0 
-3.3819690607316204 1:178.0 2:52.0 3:32700.0 4:55.0 
-5.462060752836325 1:199.0 2:47.0 3:0.0 4:89.0 
-3.6847163218666164 1:211.0 2:39.0 3:0.0 4:118.0 
0.8923171299486984 1:209.0 2:40.0 3:0.0 4:68.0 
-1.3430406273515492 1:180.0 2:61.0 3:2.0 4:58.0 
0.7801372251606131 1:195.0 2:58.0 3:32700.0 4:109.0 
-3.151054997520907 1:184.0 2:55.0 3:32700.0 4:76.0 
-8.0 1:179.0 2:58.0 3:0.0 4:97.0 
4.915898327955881 1:214.0 2:32.0 3:0.0 4:116.0 
-7.817163050176957 1:184.0 2:48.0 3:3.0 4:58.0 
7.155778144612345 1:202.0 2:38.0 3:0.0 4:103.0 
-8.0 1:207.0 2:37.0 3:0.0 4:115.0 
-5.384931128344942 1:211.0 2:36.0 3:0.0 4:108.0 
2.3216236709996765 1:184.0 2:51.0 3:0.0 4:97.0 
-3.6732484167044754 1:192.0 2:47.0 3:0.0 4:94.0 
-8.0 1:167.0 2:57.0 3:0.0 4:101.0 
0.6626622513074261 1:179.0 2:54.0 3:0.0 4:103.0 
-3.074538493951513 1:127.0 2:83.0 3:60.0 4:27.0 
-2.00073098620065 1:158.0 2:64.0 3:0.0 4:83.0 
8.0 1:177.0 2:51.0 3:32700.0 4:58.0 
-3.074484934044881 1:169.0 2:61.0 3:24.0 4:36.0 
-5.16281786470012 1:201.0 2:37.0 3:0.0 4:85.0 
-2.618289563106877 1:204.0 2:39.0 3:0.0 4:108.0 
-8.0 1:199.0 2:41.0 3:0.0 4:112.0 
-4.457606328663582 1:166.0 2:52.0 3:0.0 4:102.0 
-4.076722357345719 1:175.0 2:87.0 3:75.0 4:0.0 
-5.4852855813240105 1:172.0 2:92.0 3:34.0 4:0.0 
-3.162235609555893 1:216.0 2:77.0 3:1.0 4:33.0 
6.222047642421184 1:210.0 2:81.0 3:243.0 4:29.0 
-6.0923396907224445 1:203.0 2:77.0 3:27.0 4:15.0 
2.1459524819931124 1:210.0 2:75.0 3:32700.0 4:46.0 
1.122534694630878 1:255.0 2:49.0 3:0.0 4:93.0 
3.72231088814166 1:220.0 2:74.0 3:38.0 4:49.0 
0.031407901992603016 1:259.0 2:49.0 3:0.0 4:89.0 
-8.0 1:258.0 2:47.0 3:0.0 4:108.0 
5.492509266996011 1:253.0 2:46.0 3:0.0 4:103.0 
4.571678805999329 1:264.0 2:49.0 3:0.0 4:101.0 
-8.0 1:236.0 2:42.0 3:0.0 4:119.0 
5.699006388445358 1:248.0 2:47.0 3:0.0 4:99.0 
8.0 1:230.0 2:45.0 3:0.0 4:95.0 
-6.344468433012842 1:232.0 2:42.0 3:0.0 4:95.0 
-8.0 1:248.0 2:43.0 3:0.0 4:94.0 
-1.0701183937135372 1:226.0 2:51.0 3:32700.0 4:76.0 
-7.253634897488882 1:252.0 2:42.0 3:0.0 4:104.0 
-3.2350588200703077 1:240.0 2:45.0 3:0.0 4:101.0 
-8.0 1:248.0 2:49.0 3:0.0 4:111.0 
-7.080883484608883 1:207.0 2:74.0 3:2.0 4:49.0 
0.7552205367279079 1:227.0 2:60.0 3:0.0 4:106.0 
3.3482484945546376 1:204.0 2:67.0 3:3.0 4:6.0 
-0.40114894389524186 1:185.0 2:81.0 3:10.0 4:0.0 
-2.8790314391779996 1:225.0 2:34.0 3:0.0 4:121.0 
1.1732334927980608 1:221.0 2:40.0 3:0.0 4:97.0 
8.0 1:221.0 2:32.0 3:0.0 4:122.0 
-8.0 1:219.0 2:33.0 3:0.0 4:120.0 
-8.0 1:202.0 2:45.0 3:0.0 4:122.0 
-4.074276431204073 1:229.0 2:72.0 3:30.0 4:68.0 
-4.42012822271556 1:226.0 2:66.0 3:0.0 4:55.0 
-8.0 1:230.0 2:71.0 3:0.0 4:73.0 
1.4596460220134266 1:219.0 2:70.0 3:0.0 4:8.0 
-2.9008943585252536 1:222.0 2:69.0 3:0.0 4:75.0 
-4.251819148753408 1:219.0 2:69.0 3:32700.0 4:15.0 
2.3814229075926816 1:210.0 2:74.0 3:0.0 4:14.0 
-4.381609188860615 1:215.0 2:79.0 3:8.0 4:6.0 
-5.184635818260737 1:218.0 2:77.0 3:1.0 4:9.0 
4.533350520179557 1:191.0 2:93.0 3:395.0 4:0.0 
-2.2952047778346256 1:208.0 2:85.0 3:22.0 4:0.0 
-6.6603626483032485 1:229.0 2:71.0 3:0.0 4:58.0 
2.7217650145731604 1:222.0 2:75.0 3:148.0 4:17.0 
-0.7539984602040017 1:193.0 2:81.0 3:32700.0 4:0.0 
-0.2783043280890296 1:198.0 2:79.0 3:10.0 4:16.0 
4.725490449188312 1:223.0 2:67.0 3:87.0 4:13.0 
-0.16959448163870094 1:205.0 2:77.0 3:90.0 4:19.0 
-4.985334525975273 1:222.0 2:71.0 3:32700.0 4:50.0 
5.126120014543045 1:239.0 2:54.0 3:0.0 4:106.0 
-1.2278618906176657 1:218.0 2:78.0 3:24.0 4:6.0 
2.6508877217602618 1:211.0 2:78.0 3:2.0 4:0.0 
-6.948534921099088 1:227.0 2:74.0 3:16.0 4:41.0 
-3.5158990061261735 1:227.0 2:71.0 3:32700.0 4:83.0 
-0.21927428774852276 1:247.0 2:50.0 3:0.0 4:127.0 
5.883512924040564 1:251.0 2:49.0 3:0.0 4:110.0 
-2.8024109966117994 1:222.0 2:71.0 3:0.0 4:61.0 
0.5932733618176628 1:238.0 2:58.0 3:0.0 4:126.0 
6.428261182362533 1:186.0 2:88.0 3:36.0 4:0.0 
-6.829346114323625 1:202.0 2:85.0 3:59.0 4:5.0 
-5.248584624810303 1:204.0 2:81.0 3:0.0 4:28.0 
-1.5759860303495714 1:218.0 2:79.0 3:0.0 4:96.0 
-2.0746567326071563 1:210.0 2:84.0 3:243.0 4:60.0 
-5.41308752456157 1:187.0 2:92.0 3:397.0 4:0.0 
0.7253645202554657 1:187.0 2:92.0 3:54.0 4:40.0 
-5.9767128372789475 1:223.0 2:73.0 3:32700.0 4:62.0 
-7.581445117193326 1:211.0 2:81.0 3:32700.0 4:50.0 
-3.026320482243271 1:211.0 2:81.0 3:98.0 4:84.0 
-4.478594109389325 1:207.0 2:84.0 3:13.0 4:11.0 
-0.6585568705733027 1:210.0 2:77.0 3:10.0 4:0.0 
-2.156710321839313 1:195.0 2:88.0 3:46.0 4:17.0 
4.597757320138777 1:214.0 2:81.0 3:21.0 4:87.0 
-0.17474162467022514 1:223.0 2:75.0 3:0.0 4:89.0 
-1.2922043432891166 1:212.0 2:87.0 3:19.0 4:12.0 
-0.08211582329521727 1:199.0 2:92.0 3:228.0 4:9.0 
-7.496825047848793 1:201.0 2:90.0 3:114.0 4:0.0 
-4.133860117110716 1:210.0 2:85.0 3:11.0 4:3.0 
-8.0 1:215.0 2:77.0 3:0.0 4:36.0 
3.3489652649751487 1:231.0 2:68.0 3:0.0 4:56.0 
-5.07475772473633 1:208.0 2:84.0 3:44.0 4:2.0 
-8.0 1:221.0 2:76.0 3:0.0 4:55.0 
7.6601266452329995 1:227.0 2:72.0 3:0.0 4:72.0 
-4.611233821451936 1:230.0 2:73.0 3:0.0 4:88.0 
-4.8842289071718765 1:223.0 2:75.0 3:0.0 4:44.0 
1.6019612928071192 1:221.0 2:76.0 3:13.0 4:84.0 
-8.0 1:226.0 2:74.0 3:0.0 4:66.0 
8.0 1:207.0 2:84.0 3:13.0 4:6.0 
8.0 1:210.0 2:82.0 3:38.0 4:16.0 
-4.1088595878549885 1:210.0 2:83.0 3:40.0 4:70.0 
4.1761653832645 1:210.0 2:80.0 3:0.0 4:13.0 
0.7271772294420003 1:213.0 2:82.0 3:75.0 4:23.0 
1.1279668685490494 1:224.0 2:77.0 3:32700.0 4:85.0 
-0.6230667753889872 1:227.0 2:76.0 3:0.0 4:84.0 
-6.506939177286197 1:217.0 2:77.0 3:0.0 4:93.0 
8.0 1:222.0 2:76.0 3:0.0 4:58.0 
-5.076467874076777 1:188.0 2:93.0 3:157.0 4:17.0 
-1.0504999918531337 1:199.0 2:89.0 3:32700.0 4:69.0 
-5.309364981779294 1:202.0 2:83.0 3:0.0 4:58.0 
-7.1319814150582515 1:201.0 2:81.0 3:34.0 4:34.0 
0.27343785076831284 1:198.0 2:78.0 3:30.0 4:5.0 
-2.0079885237512354 1:188.0 2:85.0 3:47.0 4:1.0 
2.719645369776576 1:202.0 2:84.0 3:60.0 4:68.0 
-0.14819952546455917 1:204.0 2:82.0 3:32700.0 4:65.0 
-7.366897026890235 1:211.0 2:76.0 3:32700.0 4:6.0 
-1.7243742777676172 1:197.0 2:82.0 3:23.0 4:29.0 
2.182662197746914 1:221.0 2:79.0 3:3.0 4:83.0 
0.7136366542663147 1:227.0 2:71.0 3:0.0 4:105.0 
-5.587305917266624 1:213.0 2:81.0 3:0.0 4:81.0 
-3.0907308032985257 1:206.0 2:88.0 3:95.0 4:33.0 
-5.09850481644263 1:235.0 2:72.0 3:0.0 4:116.0 
-2.906427506055486 1:225.0 2:78.0 3:66.0 4:62.0 
-1.406080138890053 1:222.0 2:68.0 3:0.0 4:117.0 
-2.4902515023991176 1:220.0 2:71.0 3:0.0 4:111.0 
2.521412130245135 1:209.0 2:82.0 3:16.0 4:80.0 
4.359833760823078 1:209.0 2:82.0 3:32700.0 4:46.0 
-0.0771838465510557 1:200.0 2:82.0 3:155.0 4:38.0 
8.0 1:194.0 2:91.0 3:214.0 4:10.0 
5.936569008215784 1:221.0 2:77.0 3:0.0 4:98.0 
-5.81751297504427 1:229.0 2:75.0 3:0.0 4:99.0 
0.7254128511441702 1:200.0 2:84.0 3:119.0 4:58.0 
3.2118395224144844 1:206.0 2:84.0 3:103.0 4:69.0 
6.6766489334171 1:191.0 2:89.0 3:92.0 4:0.0 
-3.0743101412603218 1:181.0 2:88.0 3:16.0 4:34.0 
-3.0777129222864548 1:171.0 2:93.0 3:175.0 4:0.0 
3.413548860709091 1:171.0 2:87.0 3:4.0 4:0.0 
-3.325281027366277 1:211.0 2:78.0 3:17.0 4:56.0 
-5.976320406431937 1:190.0 2:90.0 3:212.0 4:15.0 
-3.5346914856146094 1:208.0 2:73.0 3:0.0 4:108.0 
-0.9926396975392435 1:210.0 2:77.0 3:0.0 4:93.0 
-0.07725911123685429 1:197.0 2:78.0 3:0.0 4:48.0 
-1.8910479951865582 1:204.0 2:74.0 3:0.0 4:105.0 
0.592247544417395 1:203.0 2:79.0 3:0.0 4:39.0 
3.1440741235734264 1:208.0 2:72.0 3:0.0 4:44.0 
8.0 1:194.0 2:80.0 3:0.0 4:55.0 
-8.0 1:198.0 2:82.0 3:32700.0 4:12.0 
-4.703960591543984 1:165.0 2:86.0 3:0.0 4:12.0 
-3.0795906056264815 1:187.0 2:83.0 3:32700.0 4:27.0 
-6.2807904496651314 1:148.0 2:84.0 3:36.0 4:5.0 
-0.26956335986579744 1:156.0 2:84.0 3:0.0 4:0.0 
1.5814734791508216 1:199.0 2:85.0 3:31.0 4:40.0 
0.7252792877658867 1:136.0 2:94.0 3:491.0 4:0.0 
-1.699666171197741 1:216.0 2:78.0 3:0.0 4:64.0 
4.000057102073077 1:209.0 2:79.0 3:32700.0 4:54.0 
-0.030071593853286845 1:209.0 2:77.0 3:0.0 4:71.0 
-4.997353016155378 1:209.0 2:80.0 3:0.0 4:71.0 
-6.658283537288094 1:205.0 2:75.0 3:0.0 4:89.0 
-2.8548926807881347 1:203.0 2:78.0 3:0.0 4:56.0 
-1.2971363522736474 1:195.0 2:69.0 3:0.0 4:38.0 
-6.011598685017236 1:202.0 2:75.0 3:0.0 4:65.0 
-0.0746558811037139 1:177.0 2:92.0 3:474.0 4:8.0 
0.8621646703948451 1:191.0 2:71.0 3:0.0 4:43.0 
-7.008075390815396 1:220.0 2:79.0 3:0.0 4:78.0 
-4.0451379797240765 1:155.0 2:81.0 3:22.0 4:61.0 
-8.0 1:142.0 2:71.0 3:0.0 4:53.0 
-2.822730270199872 1:165.0 2:71.0 3:0.0 4:67.0 
-1.6675707787869674 1:175.0 2:73.0 3:0.0 4:71.0 
3.5315036700923046 1:161.0 2:60.0 3:0.0 4:108.0 
-1.4046317315482049 1:163.0 2:67.0 3:0.0 4:108.0 
2.5856977191031625 1:170.0 2:62.0 3:0.0 4:107.0 
-6.364412585727992 1:155.0 2:64.0 3:0.0 4:106.0 
1.3776037691651686 1:155.0 2:70.0 3:0.0 4:106.0 
-8.0 1:173.0 2:59.0 3:0.0 4:108.0 
-8.0 1:163.0 2:59.0 3:0.0 4:108.0 
-3.9685696481333674 1:173.0 2:67.0 3:0.0 4:91.0 
-7.377116508722125 1:183.0 2:59.0 3:0.0 4:109.0 
-3.0049005315988206 1:189.0 2:61.0 3:0.0 4:104.0 
-4.209639146489484 1:160.0 2:74.0 3:0.0 4:43.0 
-5.877019275451033 1:190.0 2:68.0 3:0.0 4:105.0 
6.163954497249147 1:192.0 2:65.0 3:0.0 4:101.0 
0.5174708527973668 1:177.0 2:83.0 3:32700.0 4:4.0 
-8.0 1:198.0 2:73.0 3:0.0 4:72.0 
-3.724614151714814 1:183.0 2:79.0 3:0.0 4:56.0 
1.7254470608418684 1:183.0 2:79.0 3:32700.0 4:67.0 
1.6323117174261879 1:185.0 2:82.0 3:0.0 4:24.0 
8.0 1:179.0 2:84.0 3:0.0 4:44.0 
-6.533458154822993 1:191.0 2:83.0 3:32700.0 4:7.0 
-2.5629115651011 1:185.0 2:82.0 3:1.0 4:10.0 
-7.594119661112467 1:194.0 2:80.0 3:0.0 4:58.0 
-8.0 1:196.0 2:80.0 3:0.0 4:51.0 
-5.71301178254342 1:179.0 2:85.0 3:0.0 4:60.0 
-4.6999407140580765 1:191.0 2:83.0 3:3.0 4:77.0 
-6.074616671791061 1:163.0 2:91.0 3:54.0 4:27.0 
-8.0 1:128.0 2:58.0 3:0.0 4:98.0 
-1.1072345659180072 1:137.0 2:60.0 3:0.0 4:100.0 
-8.0 1:136.0 2:55.0 3:0.0 4:99.0 
-8.0 1:138.0 2:69.0 3:0.0 4:75.0 
-1.9953251204476394 1:149.0 2:59.0 3:0.0 4:90.0 
-7.582461660168271 1:148.0 2:62.0 3:0.0 4:101.0 
-8.0 1:148.0 2:59.0 3:0.0 4:96.0 
-3.7039262611867163 1:172.0 2:42.0 3:0.0 4:100.0 
-8.0 1:141.0 2:60.0 3:0.0 4:98.0 
-5.413117225348655 1:183.0 2:50.0 3:0.0 4:99.0 
5.270327635878418 1:167.0 2:55.0 3:0.0 4:96.0 
-2.2227326377902865 1:132.0 2:75.0 3:0.0 4:79.0 
-8.0 1:158.0 2:57.0 3:0.0 4:98.0 
-4.074307824941382 1:158.0 2:73.0 3:18.0 4:43.0 
8.0 1:145.0 2:64.0 3:0.0 4:89.0 
-2.146995330549649 1:149.0 2:68.0 3:0.0 4:81.0 
-2.3355094968518815 1:144.0 2:75.0 3:0.0 4:69.0 
2.0603853731069153 1:142.0 2:66.0 3:0.0 4:97.0 
-8.0 1:142.0 2:65.0 3:0.0 4:93.0 
-8.0 1:145.0 2:58.0 3:0.0 4:101.0 
-6.074208378413109 1:166.0 2:62.0 3:32700.0 4:60.0 
-8.0 1:156.0 2:56.0 3:0.0 4:93.0 
-0.7298090574147451 1:163.0 2:81.0 3:0.0 4:21.0 
-1.0453055934776123 1:168.0 2:78.0 3:32700.0 4:36.0 
4.118077779966318 1:145.0 2:70.0 3:0.0 4:75.0 
-3.5093609270654262 1:148.0 2:77.0 3:0.0 4:86.0 
8.0 1:145.0 2:61.0 3:0.0 4:100.0 
8.0 1:142.0 2:58.0 3:0.0 4:100.0 
-8.0 1:148.0 2:74.0 3:0.0 4:99.0 
-6.074507334109214 1:33.0 2:70.0 3:0.0 4:0.0 
-5.074527436859995 1:14.0 2:87.0 3:0.0 4:0.0 
8.0 1:113.0 2:54.0 3:0.0 4:98.0 
-3.604758054377582 1:103.0 2:62.0 3:0.0 4:81.0 
-4.022820984938477 1:98.0 2:55.0 3:0.0 4:96.0 
-3.8119353576208614 1:109.0 2:67.0 3:0.0 4:76.0 
-2.11601104551053 1:107.0 2:58.0 3:0.0 4:98.0 
-8.0 1:104.0 2:56.0 3:0.0 4:95.0 
-3.4766759273566676 1:77.0 2:73.0 3:0.0 4:41.0 
-5.507995634165652 1:124.0 2:44.0 3:0.0 4:97.0 
-8.0 1:116.0 2:46.0 3:0.0 4:97.0 
-3.625298970135806 1:108.0 2:61.0 3:0.0 4:89.0 
-8.0 1:116.0 2:62.0 3:0.0 4:97.0 
0.006143349575877879 1:110.0 2:50.0 3:0.0 4:96.0 
-8.0 1:109.0 2:49.0 3:0.0 4:97.0 
-6.38276125933433 1:111.0 2:54.0 3:0.0 4:97.0 
-4.035485054222082 1:109.0 2:50.0 3:0.0 4:95.0 
7.575977970339754 1:108.0 2:68.0 3:0.0 4:95.0 
8.0 1:116.0 2:60.0 3:0.0 4:95.0 
-8.0 1:116.0 2:59.0 3:0.0 4:95.0 
-8.0 1:102.0 2:66.0 3:0.0 4:93.0 
-6.7961486671419475 1:107.0 2:77.0 3:0.0 4:44.0 
-2.0321386918003728 1:118.0 2:69.0 3:0.0 4:79.0 
8.0 1:116.0 2:73.0 3:0.0 4:92.0 
-3.425970406372746 1:105.0 2:75.0 3:0.0 4:36.0 
8.0 1:135.0 2:56.0 3:0.0 4:96.0 
-0.7063523253128388 1:88.0 2:73.0 3:0.0 4:6.0 
6.6183656350620605 1:125.0 2:56.0 3:0.0 4:98.0 
-8.0 1:124.0 2:58.0 3:0.0 4:98.0 
-5.594682460109913 1:149.0 2:53.0 3:0.0 4:95.0 
-4.596688286525384 1:104.0 2:61.0 3:0.0 4:39.0 
1.9989176904615167 1:120.0 2:53.0 3:0.0 4:102.0 
-8.0 1:111.0 2:58.0 3:0.0 4:93.0 
-6.021235332805944 1:96.0 2:52.0 3:0.0 4:81.0 
-4.039727896494018 1:99.0 2:43.0 3:0.0 4:100.0 
-4.3966517021283025 1:89.0 2:55.0 3:0.0 4:91.0 
8.0 1:109.0 2:49.0 3:0.0 4:97.0 
-8.0 1:110.0 2:50.0 3:0.0 4:98.0 
0.9500185906504687 1:108.0 2:48.0 3:0.0 4:100.0 
-2.4650839227182595 1:106.0 2:48.0 3:0.0 4:100.0 
3.294176266803495 1:130.0 2:35.0 3:0.0 4:45.0 
-3.629411163816218 1:113.0 2:75.0 3:0.0 4:72.0 
-8.0 1:121.0 2:53.0 3:0.0 4:90.0 
7.7527193446673435 1:99.0 2:62.0 3:0.0 4:98.0 
1.4595192510797952 1:92.0 2:71.0 3:0.0 4:61.0 
-8.0 1:94.0 2:71.0 3:0.0 4:57.0 
8.0 1:90.0 2:68.0 3:0.0 4:81.0 
2.233152897400717 1:82.0 2:76.0 3:0.0 4:63.0 
-8.0 1:81.0 2:76.0 3:0.0 4:65.0 
-5.980347484601847 1:87.0 2:77.0 3:0.0 4:65.0 
-6.074560755302969 1:71.0 2:80.0 3:32700.0 4:35.0 
8.0 1:120.0 2:43.0 3:0.0 4:80.0 
-4.11388603860288 1:87.0 2:59.0 3:0.0 4:34.0 
8.0 1:104.0 2:45.0 3:0.0 4:99.0 
8.0 1:107.0 2:49.0 3:0.0 4:96.0 
8.0 1:127.0 2:48.0 3:0.0 4:96.0 
8.0 1:119.0 2:44.0 3:0.0 4:97.0 
-8.0 1:91.0 2:71.0 3:0.0 4:79.0 
-2.7767181135323202 1:96.0 2:80.0 3:0.0 4:42.0 
-3.967711385247752 1:69.0 2:82.0 3:0.0 4:52.0 
0.9018883059092467 1:167.0 2:34.0 3:0.0 4:109.0 
-4.098822957336315 1:196.0 2:25.0 3:0.0 4:107.0 
-0.6526630063193236 1:168.0 2:37.0 3:0.0 4:108.0 
-8.0 1:175.0 2:45.0 3:0.0 4:108.0 
8.0 1:165.0 2:34.0 3:0.0 4:109.0 
-3.061303025872322 1:147.0 2:38.0 3:0.0 4:108.0 
-5.669283226383808 1:158.0 2:60.0 3:0.0 4:84.0 
1.098739964693139 1:141.0 2:50.0 3:0.0 4:98.0 
0.7536762977577965 1:148.0 2:42.0 3:0.0 4:108.0 
-4.074610069349388 1:165.0 2:52.0 3:32700.0 4:14.0 
-3.0773951387809726 1:133.0 2:51.0 3:0.0 4:108.0 
-1.0693384901121057 1:159.0 2:36.0 3:0.0 4:106.0 
-8.0 1:170.0 2:41.0 3:0.0 4:88.0 
-4.6095498750261275 1:173.0 2:32.0 3:0.0 4:93.0 
-2.438034335822205 1:168.0 2:31.0 3:0.0 4:105.0 
-1.4476794242065476 1:169.0 2:33.0 3:0.0 4:107.0 
-5.100643664577882 1:181.0 2:31.0 3:0.0 4:62.0 
-4.242841686028795 1:159.0 2:47.0 3:0.0 4:95.0 
-0.06047701711235096 1:158.0 2:39.0 3:0.0 4:106.0 
-6.321456035616011 1:158.0 2:39.0 3:0.0 4:104.0 
-4.367205479168765 1:161.0 2:42.0 3:0.0 4:87.0 
-3.6222456062667376 1:142.0 2:39.0 3:0.0 4:104.0 
2.2291933220237725 1:161.0 2:37.0 3:0.0 4:102.0 
-4.074554386477372 1:113.0 2:50.0 3:32700.0 4:87.0 
-8.0 1:132.0 2:43.0 3:0.0 4:103.0 
-1.1837117851173224 1:110.0 2:46.0 3:0.0 4:82.0 
3.6125037618869724 1:113.0 2:51.0 3:0.0 4:69.0 
8.0 1:110.0 2:43.0 3:0.0 4:98.0 
2.6401566147046487 1:202.0 2:36.0 3:0.0 4:98.0 
2.0066362980961396 1:188.0 2:37.0 3:0.0 4:102.0 
-8.0 1:195.0 2:31.0 3:0.0 4:108.0 
-4.207824301791437 1:188.0 2:42.0 3:0.0 4:78.0 
-3.0677667898068446 1:169.0 2:49.0 3:2.0 4:36.0 
-3.5874354197710128 1:162.0 2:51.0 3:0.0 4:100.0 
-8.0 1:178.0 2:41.0 3:0.0 4:113.0 
4.557867556909304 1:200.0 2:33.0 3:0.0 4:102.0 
0.9416311913889164 1:180.0 2:38.0 3:0.0 4:85.0 
-2.0723461959425205 1:167.0 2:44.0 3:32700.0 4:80.0 
-8.0 1:165.0 2:38.0 3:0.0 4:109.0 
-6.681520117246844 1:167.0 2:39.0 3:0.0 4:97.0 
-4.314858942655176 1:168.0 2:49.0 3:6.0 4:58.0 
-1.2359818029182918 1:157.0 2:53.0 3:0.0 4:64.0 
-7.067920167963077 1:197.0 2:35.0 3:0.0 4:97.0 
-8.0 1:202.0 2:37.0 3:0.0 4:101.0 
-6.478643202928102 1:162.0 2:50.0 3:0.0 4:97.0 
-8.0 1:186.0 2:38.0 3:0.0 4:100.0 
-4.070175478513837 1:148.0 2:57.0 3:7.0 4:59.0 
-1.074636576761606 1:147.0 2:56.0 3:32700.0 4:101.0 
8.0 1:167.0 2:41.0 3:0.0 4:102.0 
0.5832505061842692 1:179.0 2:37.0 3:0.0 4:89.0 
-2.475232625609226 1:153.0 2:56.0 3:0.0 4:79.0 
3.432193066328645 1:166.0 2:49.0 3:0.0 4:100.0 
-5.317540397788031 1:168.0 2:50.0 3:0.0 4:103.0 
8.0 1:156.0 2:49.0 3:0.0 4:86.0 
8.0 1:143.0 2:71.0 3:0.0 4:54.0 
4.380490247583857 1:158.0 2:65.0 3:0.0 4:86.0 
-4.0079220164768685 1:184.0 2:27.0 3:0.0 4:108.0 
-8.0 1:157.0 2:45.0 3:0.0 4:86.0 
-1.5650529675458555 1:191.0 2:25.0 3:0.0 4:105.0 
1.5865709545388929 1:211.0 2:54.0 3:11.0 4:46.0 
6.899238896036731 1:225.0 2:43.0 3:0.0 4:78.0 
-0.6815367938285881 1:218.0 2:46.0 3:0.0 4:116.0 
-0.9988890057269799 1:205.0 2:43.0 3:0.0 4:77.0 
-8.0 1:223.0 2:38.0 3:0.0 4:93.0 
-4.095233174827936 1:208.0 2:41.0 3:0.0 4:97.0 
-2.3161196515281635 1:212.0 2:37.0 3:0.0 4:63.0 
-6.534327693010378 1:229.0 2:33.0 3:0.0 4:108.0 
-5.074294878329922 1:220.0 2:36.0 3:32700.0 4:76.0 
-6.70001877694084 1:214.0 2:29.0 3:0.0 4:119.0 
-8.0 1:227.0 2:31.0 3:0.0 4:104.0 
-7.921288949376966 1:196.0 2:42.0 3:0.0 4:99.0 
5.387878684863107 1:207.0 2:36.0 3:0.0 4:118.0 
-4.112840714748547 1:191.0 2:47.0 3:32700.0 4:46.0 
-5.614628503617171 1:187.0 2:46.0 3:0.0 4:98.0 
-6.143372613622645 1:199.0 2:47.0 3:32700.0 4:77.0 
-4.5417821604419775 1:187.0 2:61.0 3:0.0 4:59.0 
-3.750577838281773 1:141.0 2:85.0 3:32.0 4:0.0 
-5.068619623048013 1:176.0 2:68.0 3:32700.0 4:37.0 
-6.074914805428524 1:209.0 2:37.0 3:0.0 4:40.0 
-5.074663765474696 1:169.0 2:71.0 3:79.0 4:20.0 
-8.0 1:193.0 2:31.0 3:0.0 4:108.0 
-6.801518293497452 1:205.0 2:32.0 3:0.0 4:106.0 
3.7412871249529966 1:134.0 2:57.0 3:32700.0 4:66.0 
6.456963991648284 1:156.0 2:52.0 3:0.0 4:96.0 
-7.816258723769802 1:199.0 2:31.0 3:0.0 4:85.0 
-5.881987270078936 1:176.0 2:43.0 3:32700.0 4:57.0 
-8.0 1:183.0 2:42.0 3:0.0 4:110.0 
-3.0802531436647036 1:199.0 2:32.0 3:0.0 4:111.0 
-2.07337321016774 1:183.0 2:39.0 3:32700.0 4:81.0 
-3.0513399991325714 1:241.0 2:52.0 3:0.0 4:109.0 
-6.079927109806032 1:234.0 2:54.0 3:0.0 4:78.0 
-6.0106942882886365 1:244.0 2:51.0 3:0.0 4:117.0 
-0.3929145154787195 1:240.0 2:53.0 3:0.0 4:92.0 
-8.0 1:221.0 2:68.0 3:0.0 4:72.0 
8.0 1:243.0 2:54.0 3:0.0 4:115.0 
0.869143466363199 1:215.0 2:65.0 3:32700.0 4:41.0 
-3.7609079217247383 1:193.0 2:83.0 3:90.0 4:0.0 
-7.074056427290943 1:226.0 2:56.0 3:28.0 4:81.0 
-3.0558299256295243 1:198.0 2:74.0 3:285.0 4:20.0 
-6.074042760955347 1:238.0 2:41.0 3:32700.0 4:83.0 
-2.0743060404805282 1:208.0 2:66.0 3:164.0 4:77.0 
-1.7549267711732583 1:220.0 2:48.0 3:0.0 4:74.0 
-2.2825582772845987 1:229.0 2:40.0 3:0.0 4:89.0 
5.523247738385056 1:239.0 2:43.0 3:0.0 4:90.0 
-0.07494310657957026 1:216.0 2:60.0 3:10.0 4:65.0 
-6.152613176264811 1:223.0 2:42.0 3:0.0 4:74.0 
-2.255938528200213 1:228.0 2:39.0 3:0.0 4:72.0 
-6.777955756274538 1:194.0 2:67.0 3:0.0 4:68.0 
-5.389342925913562 1:213.0 2:52.0 3:0.0 4:115.0 
3.294301242733048 1:166.0 2:75.0 3:38.0 4:2.0 
-5.670082746737883 1:168.0 2:83.0 3:10.0 4:0.0 
4.130014790747783 1:198.0 2:52.0 3:0.0 4:68.0 
-2.5232571694157975 1:194.0 2:55.0 3:2.0 4:70.0 
-8.0 1:198.0 2:50.0 3:0.0 4:103.0 
-3.8163017495089084 1:189.0 2:55.0 3:0.0 4:53.0 
-1.0479957243956695 1:161.0 2:81.0 3:32.0 4:56.0 
-4.0745667853354135 1:176.0 2:64.0 3:32700.0 4:92.0 
-2.397602723677433 1:202.0 2:61.0 3:3.0 4:57.0 
-5.980211806354708 1:162.0 2:82.0 3:36.0 4:0.0 
-4.072199378384347 1:212.0 2:56.0 3:32700.0 4:72.0 
-6.841413523474738 1:228.0 2:66.0 3:0.0 4:53.0 
-3.0557341237817095 1:205.0 2:79.0 3:293.0 4:25.0 
-4.701113398643145 1:232.0 2:63.0 3:0.0 4:62.0 
-4.594986408235808 1:239.0 2:58.0 3:0.0 4:110.0 
4.725972732602164 1:205.0 2:79.0 3:153.0 4:4.0 
0.7268033797106148 1:221.0 2:76.0 3:79.0 4:36.0 
1.7853511687241213 1:230.0 2:69.0 3:0.0 4:23.0 
-6.042076305636714 1:230.0 2:70.0 3:59.0 4:65.0 
-4.232032260678258 1:234.0 2:70.0 3:32700.0 4:52.0 
2.817653227260572 1:252.0 2:56.0 3:0.0 4:94.0 
-7.2251948455380175 1:208.0 2:83.0 3:238.0 4:28.0 
-8.0 1:255.0 2:53.0 3:0.0 4:93.0 
0.7253745774890219 1:254.0 2:56.0 3:32700.0 4:96.0 
-5.596974571775286 1:252.0 2:43.0 3:0.0 4:125.0 
4.059099212001551 1:254.0 2:46.0 3:0.0 4:115.0 
-2.7454690055834985 1:232.0 2:42.0 3:0.0 4:128.0 
-1.6038141667557122 1:238.0 2:45.0 3:0.0 4:124.0 
-3.5500730378201424 1:202.0 2:46.0 3:0.0 4:126.0 
-0.07575968692641737 1:217.0 2:42.0 3:0.0 4:130.0 
-2.074041612029932 1:162.0 2:81.0 3:390.0 4:0.0 
-2.78491163102459 1:199.0 2:55.0 3:0.0 4:124.0 
-5.269494343510999 1:239.0 2:54.0 3:0.0 4:122.0 
-3.0746159799369734 1:236.0 2:59.0 3:67.0 4:52.0 
0.43665727569026996 1:232.0 2:61.0 3:0.0 4:89.0 
-4.260315312564342 1:237.0 2:59.0 3:0.0 4:50.0 
-8.0 1:214.0 2:70.0 3:0.0 4:52.0 
-2.853396236374256 1:227.0 2:64.0 3:2.0 4:73.0 
-0.07442259142636143 1:175.0 2:76.0 3:93.0 4:0.0 
-3.887126793722774 1:187.0 2:77.0 3:0.0 4:34.0 
-3.5661922700459936 1:247.0 2:47.0 3:0.0 4:103.0 
-1.804557705595505 1:208.0 2:77.0 3:121.0 4:22.0 
-4.263327707624223 1:203.0 2:79.0 3:32700.0 4:61.0 
-3.509441997093307 1:216.0 2:78.0 3:15.0 4:29.0 
-2.5082876579078737 1:213.0 2:72.0 3:7.0 4:8.0 
-6.704007886734871 1:198.0 2:82.0 3:4.0 4:22.0 
-0.6932940829708873 1:227.0 2:69.0 3:0.0 4:93.0 
-5.095897880554855 1:215.0 2:74.0 3:138.0 4:62.0 
-3.07693331238501 1:212.0 2:73.0 3:124.0 4:16.0 
-4.074351281317561 1:218.0 2:76.0 3:64.0 4:31.0 
1.1505338044159301 1:213.0 2:74.0 3:32700.0 4:19.0 
-7.404755851371033 1:210.0 2:81.0 3:32700.0 4:37.0 
-5.230835723437899 1:218.0 2:74.0 3:14.0 4:37.0 
-2.442535857302243 1:219.0 2:70.0 3:0.0 4:3.0 
7.558418876802733 1:210.0 2:78.0 3:22.0 4:0.0 
0.28960172355949526 1:230.0 2:69.0 3:0.0 4:70.0 
4.015102544323405 1:226.0 2:67.0 3:0.0 4:43.0 
-4.0746759314974605 1:206.0 2:75.0 3:219.0 4:62.0 
-1.7440808021684804 1:218.0 2:72.0 3:2.0 4:90.0 
0.6523764429895951 1:204.0 2:82.0 3:14.0 4:41.0 
-8.0 1:211.0 2:75.0 3:0.0 4:40.0 
7.0887337959163705 1:211.0 2:76.0 3:32700.0 4:11.0 
-2.9461369563427264 1:215.0 2:74.0 3:32700.0 4:12.0 
-0.929659864704709 1:207.0 2:76.0 3:2.0 4:19.0 
5.200623378395199 1:197.0 2:81.0 3:46.0 4:12.0 
-1.1297212740676483 1:200.0 2:82.0 3:30.0 4:2.0 
-2.4859859966420133 1:208.0 2:75.0 3:11.0 4:9.0 
2.172928548925165 1:212.0 2:73.0 3:32700.0 4:3.0 
-2.544165750051919 1:228.0 2:67.0 3:0.0 4:37.0 
-0.7055993597890766 1:227.0 2:66.0 3:0.0 4:11.0 
6.133733380090421 1:224.0 2:64.0 3:32700.0 4:20.0 
3.726020152179433 1:190.0 2:79.0 3:510.0 4:0.0 
-0.4603087142491695 1:191.0 2:76.0 3:32700.0 4:0.0 
1.914410286063218 1:225.0 2:68.0 3:0.0 4:77.0 
-1.454061013812813 1:217.0 2:71.0 3:32700.0 4:35.0 
8.0 1:193.0 2:82.0 3:172.0 4:20.0 
-1.887685136262939 1:204.0 2:79.0 3:82.0 4:70.0 
-2.2265992476048533 1:227.0 2:60.0 3:0.0 4:92.0 
0.714171825932981 1:197.0 2:81.0 3:215.0 4:0.0 
-1.1340761747178447 1:209.0 2:77.0 3:56.0 4:40.0 
2.4694399263482025 1:225.0 2:69.0 3:0.0 4:73.0 
-6.1244605265310135 1:202.0 2:74.0 3:0.0 4:46.0 
1.878695091107425 1:210.0 2:74.0 3:10.0 4:39.0 
0.7947684382418028 1:194.0 2:76.0 3:25.0 4:37.0 
4.715376791215848 1:203.0 2:75.0 3:63.0 4:57.0 
-0.19136503341661504 1:190.0 2:84.0 3:39.0 4:33.0 
8.0 1:199.0 2:76.0 3:35.0 4:52.0 
-2.0920805091224763 1:196.0 2:83.0 3:32700.0 4:45.0 
-3.4813359038377465 1:205.0 2:79.0 3:102.0 4:75.0 
-1.074583775435375 1:175.0 2:90.0 3:325.0 4:0.0 
-2.075385367042523 1:186.0 2:89.0 3:93.0 4:16.0 
2.2476320462123747 1:202.0 2:75.0 3:0.0 4:31.0 
-2.0745757493146186 1:191.0 2:85.0 3:362.0 4:25.0 
0.7496753199658674 1:204.0 2:75.0 3:84.0 4:14.0 
0.627618039848299 1:199.0 2:74.0 3:1.0 4:43.0 
-0.4498761407559696 1:220.0 2:66.0 3:0.0 4:111.0 
8.0 1:219.0 2:69.0 3:0.0 4:74.0 
-0.0746301237626339 1:188.0 2:84.0 3:310.0 4:0.0 
-1.5318217081846286 1:198.0 2:76.0 3:1.0 4:80.0 
-5.642000063198918 1:195.0 2:80.0 3:10.0 4:11.0 
-0.07423770234299454 1:189.0 2:85.0 3:111.0 4:37.0 
-2.784595701335203 1:210.0 2:72.0 3:16.0 4:27.0 
8.0 1:166.0 2:51.0 3:0.0 4:103.0 
-0.07463038357455298 1:186.0 2:66.0 3:33.0 4:91.0 
6.306324199157794 1:180.0 2:57.0 3:0.0 4:95.0 
4.870645206356358 1:175.0 2:71.0 3:0.0 4:0.0 
0.05746402253287279 1:167.0 2:85.0 3:69.0 4:0.0 
2.539484835585062 1:216.0 2:60.0 3:0.0 4:89.0 
8.0 1:211.0 2:55.0 3:0.0 4:56.0 
-8.0 1:200.0 2:68.0 3:0.0 4:78.0 
8.0 1:210.0 2:68.0 3:0.0 4:48.0 
-3.074505485251633 1:193.0 2:69.0 3:81.0 4:51.0 
-6.287439101125796 1:213.0 2:70.0 3:0.0 4:68.0 
-2.635798284888422 1:216.0 2:69.0 3:0.0 4:43.0 
8.0 1:197.0 2:75.0 3:0.0 4:71.0 
8.0 1:208.0 2:71.0 3:0.0 4:54.0 
7.776229364271736 1:200.0 2:68.0 3:0.0 4:68.0 
8.0 1:181.0 2:75.0 3:0.0 4:0.0 
8.0 1:189.0 2:77.0 3:0.0 4:38.0 
-3.721909959521653 1:196.0 2:73.0 3:5.0 4:60.0 
-2.8327835984358707 1:194.0 2:75.0 3:0.0 4:34.0 
-8.0 1:209.0 2:71.0 3:0.0 4:47.0 
3.90595780096735 1:182.0 2:82.0 3:5.0 4:0.0 
-6.537851613494775 1:186.0 2:79.0 3:0.0 4:3.0 
2.882143179808107 1:153.0 2:84.0 3:16.0 4:0.0 
4.702577129052993 1:168.0 2:84.0 3:32700.0 4:0.0 
0.5723936907892164 1:208.0 2:77.0 3:32700.0 4:8.0 
3.6460271350143048 1:169.0 2:85.0 3:30.0 4:0.0 
-4.894078798141798 1:206.0 2:77.0 3:3.0 4:8.0 
-0.2410323060114301 1:201.0 2:82.0 3:3.0 4:0.0 
-0.1359960309605238 1:151.0 2:68.0 3:0.0 4:103.0 
-8.0 1:144.0 2:69.0 3:0.0 4:99.0 
0.7255464203299549 1:131.0 2:86.0 3:49.0 4:0.0 
-2.0215687953297543 1:145.0 2:81.0 3:23.0 4:55.0 
-3.073997620765755 1:126.0 2:77.0 3:32700.0 4:0.0 
-7.081812177023185 1:126.0 2:84.0 3:5.0 4:0.0 
4.306197070585546 1:133.0 2:75.0 3:0.0 4:68.0 
4.742562537316925 1:122.0 2:75.0 3:0.0 4:76.0 
-3.9976954575691592 1:158.0 2:83.0 3:3.0 4:5.0 
1.7255556006533044 1:122.0 2:90.0 3:122.0 4:0.0 
3.6761225913047717 1:139.0 2:92.0 3:98.0 4:0.0 
4.944008949471427 1:163.0 2:82.0 3:7.0 4:21.0 
-4.1486481285520185 1:174.0 2:77.0 3:0.0 4:31.0 
8.0 1:161.0 2:86.0 3:32.0 4:0.0 
-4.8541738925840505 1:165.0 2:74.0 3:0.0 4:3.0 
8.0 1:167.0 2:77.0 3:0.0 4:1.0 
-1.080397003964099 1:175.0 2:73.0 3:0.0 4:56.0 
1.098490775120209 1:174.0 2:67.0 3:0.0 4:53.0 
-5.167615188542046 1:164.0 2:65.0 3:0.0 4:102.0 
-1.3950057464995056 1:165.0 2:68.0 3:0.0 4:84.0 
2.8830328064498376 1:168.0 2:59.0 3:0.0 4:110.0 
8.0 1:167.0 2:60.0 3:0.0 4:103.0 
8.0 1:174.0 2:60.0 3:0.0 4:21.0 
8.0 1:173.0 2:60.0 3:0.0 4:77.0 
-3.074664430893058 1:148.0 2:89.0 3:113.0 4:0.0 
-3.9937767251319203 1:165.0 2:73.0 3:0.0 4:25.0 
-1.368089903176017 1:189.0 2:76.0 3:7.0 4:50.0 
-4.07371632594392 1:185.0 2:79.0 3:27.0 4:18.0 
-5.081013028925401 1:165.0 2:87.0 3:59.0 4:0.0 
8.0 1:183.0 2:79.0 3:0.0 4:5.0 
-2.6332075967800823 1:164.0 2:65.0 3:0.0 4:26.0 
-3.6876888911801946 1:117.0 2:75.0 3:0.0 4:69.0 
-0.061924520733910526 1:98.0 2:75.0 3:0.0 4:1.0 
-5.087973217903643 1:89.0 2:86.0 3:32700.0 4:16.0 
-1.6560382837402532 1:131.0 2:66.0 3:0.0 4:69.0 
2.0427376392464582 1:137.0 2:62.0 3:0.0 4:77.0 
-8.0 1:115.0 2:58.0 3:0.0 4:97.0 
-8.0 1:113.0 2:68.0 3:0.0 4:97.0 
8.0 1:110.0 2:56.0 3:0.0 4:96.0 
-8.0 1:122.0 2:51.0 3:0.0 4:101.0 
-7.419426358152034 1:136.0 2:69.0 3:0.0 4:90.0 
-3.2113464786300545 1:131.0 2:62.0 3:0.0 4:86.0 
-6.293753461633733 1:156.0 2:71.0 3:0.0 4:62.0 
2.249493178140728 1:145.0 2:78.0 3:0.0 4:36.0 
-0.23723148529304172 1:161.0 2:74.0 3:0.0 4:70.0 
-5.964720006686029 1:154.0 2:77.0 3:0.0 4:68.0 
8.0 1:152.0 2:58.0 3:0.0 4:97.0 
6.918910913263547 1:152.0 2:74.0 3:0.0 4:60.0 
-8.0 1:160.0 2:70.0 3:0.0 4:98.0 
7.31228258407921 1:161.0 2:56.0 3:0.0 4:94.0 
-8.0 1:145.0 2:72.0 3:0.0 4:75.0 
-6.633428889081655 1:153.0 2:70.0 3:0.0 4:79.0 
8.0 1:144.0 2:69.0 3:0.0 4:103.0 
-8.0 1:143.0 2:71.0 3:0.0 4:103.0 
-3.3887834604456026 1:135.0 2:71.0 3:0.0 4:68.0 
-8.0 1:132.0 2:75.0 3:0.0 4:91.0 
3.5619759090758993 1:141.0 2:72.0 3:0.0 4:88.0 
7.716803438855044 1:141.0 2:71.0 3:0.0 4:100.0 
8.0 1:136.0 2:64.0 3:0.0 4:104.0 
-8.0 1:138.0 2:68.0 3:0.0 4:104.0 
1.6030334712625929 1:139.0 2:62.0 3:0.0 4:107.0 
-8.0 1:93.0 2:67.0 3:0.0 4:92.0 
0.3403846058080293 1:97.0 2:59.0 3:0.0 4:92.0 
-1.1416400870656842 1:94.0 2:76.0 3:0.0 4:76.0 
-4.125742409802871 1:102.0 2:67.0 3:0.0 4:88.0 
2.9976788036425104 1:77.0 2:77.0 3:0.0 4:38.0 
-0.29392197716878365 1:88.0 2:75.0 3:0.0 4:44.0 
-8.0 1:75.0 2:76.0 3:0.0 4:62.0 
-5.477238341569509 1:69.0 2:73.0 3:0.0 4:82.0 
0.6184358582264509 1:71.0 2:74.0 3:0.0 4:81.0 
-5.15206403371306 1:39.0 2:74.0 3:0.0 4:69.0 
0.7251951744527934 1:54.0 2:76.0 3:0.0 4:46.0 
-6.047175746204953 1:26.0 2:76.0 3:0.0 4:52.0 
6.494157552527641 1:26.0 2:76.0 3:0.0 4:57.0 
-0.0745497491301923 1:15.0 2:80.0 3:50.0 4:0.0 
-0.0016175947669356816 1:21.0 2:81.0 3:0.0 4:59.0 
-0.07398391605529264 1:96.0 2:77.0 3:32700.0 4:39.0 
1.725350093394546 1:60.0 2:87.0 3:51.0 4:0.0 
8.0 1:100.0 2:56.0 3:0.0 4:93.0 
-4.294604874870371 1:100.0 2:66.0 3:0.0 4:76.0 
-0.44188992185365095 1:113.0 2:71.0 3:0.0 4:31.0 
-1.095388533856688 1:109.0 2:60.0 3:0.0 4:40.0 
4.651604460940186 1:120.0 2:62.0 3:0.0 4:91.0 
3.3916068040969307 1:113.0 2:73.0 3:0.0 4:59.0 
-4.811415756284333 1:106.0 2:75.0 3:0.0 4:57.0 
6.629383147595496 1:102.0 2:80.0 3:0.0 4:57.0 
2.5685237887437693 1:108.0 2:75.0 3:0.0 4:67.0 
5.7500808132563686 1:101.0 2:81.0 3:6.0 4:30.0 
8.0 1:96.0 2:86.0 3:0.0 4:43.0 
2.7264504468700865 1:102.0 2:82.0 3:12.0 4:0.0 
-8.0 1:113.0 2:56.0 3:0.0 4:100.0 
-8.0 1:124.0 2:48.0 3:0.0 4:100.0 
-4.712043314904869 1:124.0 2:47.0 3:0.0 4:97.0 
-3.2625162529031178 1:118.0 2:43.0 3:0.0 4:99.0 
-8.0 1:124.0 2:62.0 3:0.0 4:98.0 
8.0 1:123.0 2:60.0 3:0.0 4:100.0 
-8.0 1:126.0 2:51.0 3:0.0 4:100.0 
8.0 1:125.0 2:54.0 3:0.0 4:100.0 
-2.262032664758763 1:66.0 2:75.0 3:0.0 4:72.0 
-8.0 1:92.0 2:69.0 3:0.0 4:89.0 
-4.1076981778435915 1:41.0 2:87.0 3:28.0 4:0.0 
0.48535296713046794 1:39.0 2:80.0 3:0.0 4:64.0 
-3.07479141663487 1:71.0 2:84.0 3:32700.0 4:0.0 
-3.9742109430130266 1:79.0 2:77.0 3:0.0 4:78.0 
-1.9764623991323989 1:100.0 2:67.0 3:0.0 4:99.0 
-5.685397979451447 1:91.0 2:64.0 3:0.0 4:92.0 
0.4849205179165068 1:68.0 2:75.0 3:0.0 4:42.0 
4.202319009505625 1:95.0 2:75.0 3:0.0 4:81.0 
-4.074152479091064 1:94.0 2:56.0 3:32700.0 4:71.0 
-4.209506084757305 1:71.0 2:72.0 3:0.0 4:48.0 
-8.0 1:109.0 2:55.0 3:0.0 4:96.0 
-8.0 1:109.0 2:44.0 3:0.0 4:98.0 
-2.149604745715512 1:92.0 2:55.0 3:0.0 4:94.0 
8.0 1:95.0 2:63.0 3:0.0 4:94.0 
8.0 1:111.0 2:51.0 3:0.0 4:97.0 
4.976775604081073 1:111.0 2:45.0 3:0.0 4:96.0 
-2.0316032365493273 1:79.0 2:65.0 3:0.0 4:92.0 
-8.0 1:96.0 2:64.0 3:0.0 4:97.0 
8.0 1:112.0 2:51.0 3:0.0 4:96.0 
8.0 1:101.0 2:50.0 3:0.0 4:96.0 
8.0 1:91.0 2:57.0 3:0.0 4:91.0 
-4.815766979876916 1:167.0 2:38.0 3:0.0 4:101.0 
8.0 1:147.0 2:42.0 3:0.0 4:100.0 
8.0 1:163.0 2:33.0 3:0.0 4:97.0 
0.3214690672583353 1:173.0 2:39.0 3:0.0 4:83.0 
8.0 1:159.0 2:40.0 3:0.0 4:99.0 
-3.5615802266227186 1:146.0 2:39.0 3:0.0 4:99.0 
-7.58542089388218 1:154.0 2:45.0 3:0.0 4:102.0 
8.0 1:93.0 2:69.0 3:0.0 4:89.0 
-0.5057968591828518 1:128.0 2:56.0 3:0.0 4:98.0 
5.725372506006976 1:117.0 2:72.0 3:93.0 4:75.0 
4.759590602755436 1:74.0 2:66.0 3:6.0 4:74.0 
-2.635115963708778 1:166.0 2:38.0 3:0.0 4:61.0 
-1.0746621811477706 1:144.0 2:58.0 3:7.0 4:0.0 
8.0 1:128.0 2:44.0 3:0.0 4:103.0 
6.2304454401709455 1:148.0 2:39.0 3:0.0 4:93.0 
-1.0794054977654195 1:148.0 2:33.0 3:0.0 4:75.0 
3.9767744819225 1:140.0 2:35.0 3:0.0 4:85.0 
-3.5951820050560332 1:135.0 2:38.0 3:0.0 4:40.0 
-4.22874088454547 1:126.0 2:42.0 3:0.0 4:86.0 
-6.957247187171407 1:136.0 2:41.0 3:0.0 4:92.0 
8.0 1:146.0 2:36.0 3:0.0 4:103.0 
-0.34787781256857464 1:139.0 2:34.0 3:0.0 4:103.0 
-7.784600033199457 1:117.0 2:45.0 3:0.0 4:104.0 
5.012343757408652 1:138.0 2:36.0 3:0.0 4:105.0 
2.4046436511817357 1:121.0 2:38.0 3:0.0 4:102.0 
-0.6617051053086916 1:134.0 2:33.0 3:0.0 4:103.0 
-1.8794862965042087 1:215.0 2:32.0 3:0.0 4:93.0 
3.739601562027702 1:205.0 2:31.0 3:0.0 4:69.0 
8.0 1:188.0 2:44.0 3:0.0 4:93.0 
-4.669702024635502 1:186.0 2:47.0 3:0.0 4:48.0 
1.9875122203207782 1:162.0 2:46.0 3:0.0 4:63.0 
1.5371943969583541 1:171.0 2:47.0 3:0.0 4:89.0 
-0.07462450437851009 1:131.0 2:69.0 3:31.0 4:61.0 
8.0 1:155.0 2:48.0 3:0.0 4:100.0 
1.726093212080479 1:128.0 2:63.0 3:14.0 4:43.0 
-3.076852713113519 1:138.0 2:71.0 3:32700.0 4:71.0 
8.0 1:156.0 2:44.0 3:32700.0 4:66.0 
-2.128971921762677 1:145.0 2:51.0 3:32700.0 4:68.0 
3.9723228018097663 1:203.0 2:28.0 3:0.0 4:92.0 
-6.524170293225107 1:196.0 2:31.0 3:0.0 4:100.0 
-3.624849325495274 1:189.0 2:29.0 3:0.0 4:99.0 
-8.0 1:180.0 2:31.0 3:0.0 4:103.0 
-4.952491473054929 1:160.0 2:39.0 3:0.0 4:25.0 
8.0 1:167.0 2:37.0 3:0.0 4:89.0 
8.0 1:162.0 2:40.0 3:0.0 4:103.0 
8.0 1:179.0 2:31.0 3:0.0 4:99.0 
0.5385676750405604 1:168.0 2:31.0 3:0.0 4:87.0 
-2.863374815613617 1:154.0 2:43.0 3:0.0 4:18.0 
-8.0 1:158.0 2:39.0 3:0.0 4:96.0 
8.0 1:156.0 2:34.0 3:0.0 4:99.0 
-2.5064683638828154 1:159.0 2:49.0 3:32700.0 4:68.0 
0.14554079231657274 1:152.0 2:46.0 3:0.0 4:94.0 
0.8606365731142271 1:173.0 2:36.0 3:0.0 4:106.0 
1.2714635867856408 1:169.0 2:44.0 3:0.0 4:61.0 
1.6536181138101766 1:171.0 2:36.0 3:0.0 4:85.0 
8.0 1:180.0 2:31.0 3:0.0 4:103.0 
4.670898395252224 1:173.0 2:36.0 3:0.0 4:102.0 
-6.692888622889928 1:199.0 2:50.0 3:32700.0 4:94.0 
4.999189222291836 1:219.0 2:40.0 3:0.0 4:80.0 
-7.3146615955873475 1:208.0 2:45.0 3:0.0 4:71.0 
5.542560603700296 1:233.0 2:30.0 3:0.0 4:97.0 
6.237257163149472 1:223.0 2:32.0 3:0.0 4:104.0 
4.221751706535514 1:242.0 2:23.0 3:0.0 4:108.0 
5.024400371973655 1:235.0 2:23.0 3:0.0 4:104.0 
6.592621892164981 1:238.0 2:31.0 3:0.0 4:115.0 
-8.0 1:246.0 2:27.0 3:0.0 4:110.0 
-8.0 1:236.0 2:30.0 3:0.0 4:117.0 
8.0 1:247.0 2:28.0 3:0.0 4:111.0 
8.0 1:227.0 2:29.0 3:0.0 4:110.0 
8.0 1:236.0 2:28.0 3:0.0 4:117.0 
-3.3134017510068228 1:220.0 2:27.0 3:0.0 4:100.0 
6.95901010516208 1:216.0 2:27.0 3:0.0 4:116.0 
8.0 1:208.0 2:29.0 3:0.0 4:107.0 
-4.995264081660947 1:219.0 2:26.0 3:0.0 4:107.0 
-2.5418947186426504 1:215.0 2:32.0 3:0.0 4:112.0 
3.9010660151990444 1:216.0 2:25.0 3:0.0 4:104.0 
6.322926622733089 1:204.0 2:44.0 3:0.0 4:111.0 
8.0 1:214.0 2:37.0 3:0.0 4:113.0 
8.0 1:190.0 2:49.0 3:32700.0 4:44.0 
0.5376233277182152 1:191.0 2:52.0 3:32700.0 4:78.0 
8.0 1:160.0 2:59.0 3:0.0 4:102.0 
6.061932121628788 1:183.0 2:49.0 3:0.0 4:86.0 
6.02709869763437 1:172.0 2:39.0 3:0.0 4:57.0 
-0.07465227685536169 1:143.0 2:65.0 3:43.0 4:13.0 
4.726008514929454 1:158.0 2:55.0 3:27.0 4:88.0 
3.7251393694198773 1:193.0 2:38.0 3:32700.0 4:30.0 
8.0 1:270.0 2:40.0 3:0.0 4:105.0 
-0.8107935251221097 1:262.0 2:42.0 3:0.0 4:113.0 
5.668364549668102 1:246.0 2:58.0 3:9.0 4:87.0 
8.0 1:265.0 2:42.0 3:0.0 4:116.0 
-2.8795225228389434 1:263.0 2:43.0 3:0.0 4:115.0 
4.725360358733453 1:251.0 2:50.0 3:32700.0 4:69.0 
2.679728199267897 1:259.0 2:39.0 3:0.0 4:113.0 
-3.817240287406782 1:264.0 2:42.0 3:0.0 4:114.0 
-0.6730955181760288 1:246.0 2:41.0 3:0.0 4:117.0 
5.964439812730879 1:252.0 2:36.0 3:0.0 4:125.0 
8.0 1:250.0 2:37.0 3:0.0 4:109.0 
3.376481473657479 1:252.0 2:40.0 3:0.0 4:120.0 
-0.04614956704380437 1:244.0 2:34.0 3:0.0 4:125.0 
8.0 1:249.0 2:37.0 3:0.0 4:94.0 
8.0 1:235.0 2:38.0 3:0.0 4:107.0 
4.754513824989272 1:240.0 2:34.0 3:0.0 4:128.0 
8.0 1:238.0 2:42.0 3:0.0 4:119.0 
4.992311936794705 1:244.0 2:38.0 3:0.0 4:111.0 
1.4383424411254726 1:217.0 2:51.0 3:0.0 4:63.0 
8.0 1:230.0 2:45.0 3:0.0 4:125.0 
7.6275865300805314 1:213.0 2:53.0 3:0.0 4:44.0 
-8.0 1:218.0 2:49.0 3:0.0 4:80.0 
4.702080017593016 1:191.0 2:51.0 3:0.0 4:61.0 
2.7704131100686746 1:193.0 2:57.0 3:0.0 4:40.0 
-0.6043952119045999 1:173.0 2:71.0 3:0.0 4:44.0 
1.9433760764973078 1:189.0 2:57.0 3:0.0 4:57.0 
2.7254608328522756 1:177.0 2:65.0 3:32.0 4:51.0 
6.697998261698382 1:141.0 2:80.0 3:95.0 4:0.0 
7.430051865161675 1:216.0 2:52.0 3:0.0 4:82.0 
-3.074369245039296 1:194.0 2:64.0 3:32700.0 4:59.0 
8.0 1:220.0 2:48.0 3:0.0 4:100.0 
-0.1381684813366179 1:210.0 2:81.0 3:14.0 4:20.0 
0.7260042264913946 1:224.0 2:73.0 3:289.0 4:0.0 
5.6275031316622615 1:196.0 2:90.0 3:67.0 4:0.0 
4.324610718726286 1:240.0 2:64.0 3:2.0 4:69.0 
2.729524540977596 1:245.0 2:60.0 3:8.0 4:43.0 
6.6841609626166445 1:242.0 2:65.0 3:1.0 4:92.0 
8.0 1:230.0 2:70.0 3:0.0 4:53.0 
-4.3107470333308715 1:235.0 2:64.0 3:0.0 4:24.0 
8.0 1:244.0 2:61.0 3:1.0 4:58.0 
1.0683230623486448 1:226.0 2:67.0 3:2.0 4:22.0 
8.0 1:234.0 2:64.0 3:4.0 4:30.0 
3.9889469161797155 1:209.0 2:79.0 3:60.0 4:45.0 
1.7596826770139744 1:214.0 2:79.0 3:48.0 4:42.0 
4.9092708603261475 1:203.0 2:82.0 3:17.0 4:28.0 
5.6807967121090135 1:185.0 2:79.0 3:170.0 4:0.0 
8.0 1:217.0 2:75.0 3:52.0 4:59.0 
1.7584576045860385 1:230.0 2:68.0 3:2.0 4:61.0 
7.67297591702919 1:215.0 2:71.0 3:2.0 4:0.0 
6.614774001142835 1:209.0 2:74.0 3:4.0 4:4.0 
1.592416625903525 1:233.0 2:63.0 3:6.0 4:41.0 
8.0 1:193.0 2:83.0 3:337.0 4:0.0 
2.7253461833795143 1:211.0 2:82.0 3:270.0 4:36.0 
1.7206838215991738 1:238.0 2:65.0 3:2.0 4:63.0 
3.7249788397826396 1:241.0 2:58.0 3:32700.0 4:33.0 
1.5703499153767417 1:190.0 2:85.0 3:162.0 4:0.0 
7.376316077672449 1:274.0 2:39.0 3:0.0 4:107.0 
2.725399428938487 1:267.0 2:45.0 3:0.0 4:47.0 
0.1959464936647576 1:267.0 2:44.0 3:0.0 4:113.0 
8.0 1:275.0 2:41.0 3:0.0 4:122.0 
6.969163632179643 1:264.0 2:43.0 3:0.0 4:108.0 
8.0 1:216.0 2:78.0 3:0.0 4:89.0 
4.341977486589909 1:226.0 2:76.0 3:0.0 4:73.0 
0.7876431103783097 1:204.0 2:79.0 3:89.0 4:35.0 
8.0 1:195.0 2:89.0 3:134.0 4:43.0 
1.1911332867327649 1:218.0 2:77.0 3:1.0 4:57.0 
8.0 1:215.0 2:73.0 3:1.0 4:83.0 
8.0 1:205.0 2:74.0 3:0.0 4:89.0 
8.0 1:220.0 2:73.0 3:1.0 4:65.0 
4.727894844368858 1:183.0 2:90.0 3:198.0 4:13.0 
8.0 1:193.0 2:83.0 3:10.0 4:19.0 
-0.07458074504758283 1:202.0 2:86.0 3:294.0 4:0.0 
-5.142943738899078 1:195.0 2:84.0 3:44.0 4:9.0 
4.4881040044718965 1:220.0 2:75.0 3:8.0 4:44.0 
0.8530060535011428 1:221.0 2:77.0 3:130.0 4:65.0 
3.560033579668704 1:210.0 2:84.0 3:15.0 4:18.0 
5.231949107526301 1:216.0 2:80.0 3:32700.0 4:33.0 
8.0 1:202.0 2:87.0 3:117.0 4:0.0 
-1.0691056606027316 1:206.0 2:82.0 3:84.0 4:0.0 
7.725649995285573 1:208.0 2:87.0 3:394.0 4:0.0 
3.943116859258722 1:204.0 2:82.0 3:30.0 4:18.0 
-0.055281786588968894 1:248.0 2:62.0 3:0.0 4:91.0 
4.833817749022679 1:219.0 2:78.0 3:119.0 4:13.0 
8.0 1:235.0 2:74.0 3:2.0 4:52.0 
4.056864315573328 1:244.0 2:65.0 3:2.0 4:109.0 
8.0 1:239.0 2:73.0 3:0.0 4:22.0 
8.0 1:228.0 2:77.0 3:2.0 4:24.0 
8.0 1:219.0 2:75.0 3:2.0 4:31.0 
3.9504866560102916 1:237.0 2:72.0 3:32700.0 4:43.0 
8.0 1:210.0 2:86.0 3:424.0 4:0.0 
0.6596278833518587 1:224.0 2:74.0 3:7.0 4:29.0 
-4.519528602089963 1:217.0 2:77.0 3:19.0 4:52.0 
8.0 1:196.0 2:80.0 3:32700.0 4:15.0 
-1.1375225994354143 1:212.0 2:72.0 3:0.0 4:67.0 
6.863501470197061 1:208.0 2:75.0 3:81.0 4:64.0 
-0.09421259051852227 1:197.0 2:78.0 3:77.0 4:11.0 
3.728968034908079 1:194.0 2:87.0 3:111.0 4:13.0 
8.0 1:207.0 2:74.0 3:1.0 4:47.0 
-1.002910884309555 1:190.0 2:83.0 3:0.0 4:0.0 
-2.0813691703180726 1:185.0 2:84.0 3:117.0 4:0.0 
8.0 1:210.0 2:76.0 3:0.0 4:35.0 
-0.2388674712742774 1:213.0 2:76.0 3:32700.0 4:19.0 
-2.1059582468496614 1:201.0 2:77.0 3:0.0 4:43.0 
8.0 1:197.0 2:75.0 3:0.0 4:53.0 
2.5050738472040215 1:203.0 2:80.0 3:125.0 4:0.0 
1.72545805158558 1:189.0 2:91.0 3:259.0 4:0.0 
-0.29434874552141926 1:208.0 2:78.0 3:0.0 4:47.0 
8.0 1:218.0 2:75.0 3:0.0 4:42.0 
-0.2673505480632423 1:199.0 2:71.0 3:0.0 4:23.0 
6.995610637563079 1:192.0 2:77.0 3:0.0 4:0.0 
-1.9250633806551884 1:211.0 2:79.0 3:25.0 4:0.0 
-0.0746203214413721 1:183.0 2:82.0 3:244.0 4:14.0 
-3.467025659547005 1:227.0 2:70.0 3:0.0 4:18.0 
8.0 1:229.0 2:68.0 3:0.0 4:56.0 
0.4623433818273893 1:233.0 2:74.0 3:0.0 4:106.0 
-8.0 1:231.0 2:71.0 3:0.0 4:53.0 
8.0 1:209.0 2:84.0 3:4.0 4:55.0 
-2.959851764337069 1:223.0 2:77.0 3:67.0 4:72.0 
8.0 1:215.0 2:79.0 3:0.0 4:77.0 
8.0 1:202.0 2:87.0 3:158.0 4:23.0 
1.724562920479436 1:194.0 2:90.0 3:179.0 4:1.0 
2.7151062902480834 1:211.0 2:82.0 3:147.0 4:23.0 
8.0 1:202.0 2:88.0 3:61.0 4:7.0 
-0.6535146395857097 1:192.0 2:79.0 3:34.0 4:57.0 
1.2353252130481212 1:205.0 2:68.0 3:0.0 4:105.0 
8.0 1:201.0 2:72.0 3:0.0 4:77.0 
-0.19465332751652564 1:187.0 2:85.0 3:31.0 4:29.0 
6.110294198630588 1:198.0 2:78.0 3:0.0 4:42.0 
-2.068760691998047 1:170.0 2:91.0 3:189.0 4:0.0 
8.0 1:171.0 2:88.0 3:50.0 4:11.0 
2.6823611738845163 1:180.0 2:90.0 3:165.0 4:0.0 
8.0 1:196.0 2:81.0 3:0.0 4:25.0 
-3.2669541992912445 1:193.0 2:87.0 3:37.0 4:0.0 
1.7676590993153183 1:197.0 2:86.0 3:20.0 4:0.0 
-2.039171786350612 1:175.0 2:93.0 3:401.0 4:0.0 
4.214827209443235 1:197.0 2:84.0 3:33.0 4:29.0 
1.3395392800639043 1:213.0 2:75.0 3:88.0 4:68.0 
8.0 1:178.0 2:90.0 3:129.0 4:0.0 
-0.6349189183016403 1:214.0 2:72.0 3:32700.0 4:63.0 
0.38402793355934084 1:226.0 2:69.0 3:0.0 4:96.0 
-0.5519732028688535 1:219.0 2:67.0 3:0.0 4:105.0 
8.0 1:211.0 2:71.0 3:0.0 4:82.0 
5.722232114083543 1:198.0 2:83.0 3:184.0 4:29.0 
5.276897001859338 1:210.0 2:76.0 3:0.0 4:59.0 
1.3230517349092539 1:215.0 2:70.0 3:0.0 4:83.0 
8.0 1:212.0 2:75.0 3:35.0 4:79.0 
5.228556117431317 1:213.0 2:79.0 3:0.0 4:35.0 
4.786255790632005 1:217.0 2:72.0 3:32700.0 4:82.0 
8.0 1:212.0 2:75.0 3:0.0 4:70.0 
8.0 1:215.0 2:77.0 3:6.0 4:42.0 
-7.995112473974635 1:213.0 2:74.0 3:0.0 4:83.0 
1.7256219626207785 1:210.0 2:78.0 3:160.0 4:49.0 
-7.907024867961288 1:215.0 2:72.0 3:0.0 4:81.0 
-1.9707162133349203 1:147.0 2:80.0 3:0.0 4:60.0 
-4.076463549002617 1:166.0 2:79.0 3:32700.0 4:15.0 
6.986988018870201 1:153.0 2:83.0 3:36.0 4:0.0 
0.7253713910593107 1:133.0 2:90.0 3:71.0 4:14.0 
3.60294062803967 1:158.0 2:67.0 3:0.0 4:90.0 
2.015816823453587 1:155.0 2:76.0 3:0.0 4:34.0 
2.4266970633638625 1:168.0 2:67.0 3:0.0 4:92.0 
-8.0 1:159.0 2:66.0 3:0.0 4:88.0 
8.0 1:161.0 2:71.0 3:0.0 4:99.0 
1.277483383452449 1:173.0 2:69.0 3:0.0 4:69.0 
1.855134149230088 1:178.0 2:66.0 3:6.0 4:94.0 
7.0038535990928095 1:161.0 2:67.0 3:0.0 4:106.0 
-2.513016410745271 1:187.0 2:73.0 3:0.0 4:68.0 
-1.0735671037182661 1:169.0 2:82.0 3:22.0 4:14.0 
2.747822662913783 1:185.0 2:79.0 3:0.0 4:66.0 
-7.034017835790355 1:188.0 2:75.0 3:0.0 4:78.0 
6.112388489367222 1:159.0 2:85.0 3:0.0 4:10.0 
-0.6952758191660473 1:176.0 2:80.0 3:0.0 4:44.0 
-8.0 1:189.0 2:78.0 3:0.0 4:53.0 
7.5339130859253585 1:156.0 2:89.0 3:10.0 4:0.0 
8.0 1:186.0 2:73.0 3:0.0 4:78.0 
7.729343643339563 1:190.0 2:74.0 3:8.0 4:59.0 
-2.752489346955093 1:166.0 2:69.0 3:0.0 4:96.0 
6.432062232205547 1:175.0 2:73.0 3:0.0 4:94.0 
-0.5631230284348347 1:159.0 2:65.0 3:0.0 4:71.0 
-0.26675128897163414 1:157.0 2:67.0 3:0.0 4:97.0 
8.0 1:186.0 2:74.0 3:0.0 4:53.0 
1.9235705601484367 1:179.0 2:66.0 3:0.0 4:76.0 
-1.0746255200775363 1:180.0 2:79.0 3:99.0 4:37.0 
7.032030201505028 1:192.0 2:74.0 3:1.0 4:88.0 
-0.7242344042877975 1:198.0 2:72.0 3:0.0 4:86.0 
4.777835556601323 1:114.0 2:60.0 3:0.0 4:89.0 
8.0 1:115.0 2:61.0 3:0.0 4:99.0 
-8.0 1:122.0 2:56.0 3:0.0 4:100.0 
3.071231934124521 1:116.0 2:63.0 3:0.0 4:99.0 
7.63674010307733 1:123.0 2:57.0 3:0.0 4:103.0 
1.106697710325834 1:120.0 2:60.0 3:0.0 4:99.0 
-2.694994027622233 1:139.0 2:61.0 3:0.0 4:90.0 
2.14552961690592 1:129.0 2:64.0 3:0.0 4:99.0 
-4.580022180247401 1:139.0 2:72.0 3:0.0 4:81.0 
-7.5475714114986285 1:124.0 2:67.0 3:0.0 4:93.0 
8.0 1:154.0 2:73.0 3:0.0 4:79.0 
-5.432629017980689 1:141.0 2:75.0 3:0.0 4:92.0 
-3.3781734870401525 1:147.0 2:74.0 3:0.0 4:38.0 
-0.024793490646409937 1:150.0 2:76.0 3:12.0 4:37.0 
2.9194526434576598 1:147.0 2:70.0 3:0.0 4:96.0 
8.0 1:142.0 2:60.0 3:0.0 4:93.0 
8.0 1:147.0 2:73.0 3:0.0 4:98.0 
3.3119687349889 1:145.0 2:73.0 3:0.0 4:101.0 
-2.5475777289061967 1:142.0 2:70.0 3:0.0 4:102.0 
6.059008931109416 1:140.0 2:74.0 3:0.0 4:81.0 
4.033828859515495 1:152.0 2:75.0 3:0.0 4:86.0 
-3.3412107144855923 1:147.0 2:66.0 3:0.0 4:85.0 
4.733661383544521 1:140.0 2:85.0 3:8.0 4:0.0 
0.7254404262406049 1:156.0 2:79.0 3:269.0 4:76.0 
1.4402582152362204 1:166.0 2:74.0 3:0.0 4:31.0 
2.6549940861497463 1:154.0 2:76.0 3:0.0 4:11.0 
0.2233628126963514 1:156.0 2:69.0 3:0.0 4:90.0 
8.0 1:169.0 2:71.0 3:0.0 4:64.0 
0.05318628508541675 1:176.0 2:70.0 3:0.0 4:89.0 
-2.0357897416457376 1:109.0 2:66.0 3:0.0 4:66.0 
-5.030590567162399 1:120.0 2:67.0 3:0.0 4:28.0 
4.880381746265195 1:83.0 2:71.0 3:0.0 4:0.0 
-3.7122972584795115 1:90.0 2:73.0 3:0.0 4:69.0 
8.0 1:105.0 2:70.0 3:0.0 4:89.0 
3.078151530038653 1:97.0 2:69.0 3:0.0 4:88.0 
8.0 1:93.0 2:67.0 3:0.0 4:92.0 
7.647158488501276 1:100.0 2:68.0 3:0.0 4:73.0 
8.0 1:72.0 2:74.0 3:0.0 4:62.0 
2.524602441468512 1:84.0 2:69.0 3:0.0 4:89.0 
-5.378292491200399 1:67.0 2:77.0 3:0.0 4:63.0 
-1.0674827577464292 1:59.0 2:75.0 3:0.0 4:0.0 
4.725639619011929 1:46.0 2:91.0 3:78.0 4:0.0 
3.9667166426174716 1:78.0 2:74.0 3:0.0 4:43.0 
-0.2517273273056424 1:80.0 2:77.0 3:0.0 4:0.0 
0.8795385249180265 1:37.0 2:92.0 3:20.0 4:0.0 
8.0 1:120.0 2:67.0 3:0.0 4:97.0 
5.190435261851004 1:144.0 2:57.0 3:0.0 4:96.0 
-4.0605490484375295 1:110.0 2:72.0 3:0.0 4:87.0 
8.0 1:114.0 2:74.0 3:0.0 4:77.0 
-5.3791580735914515 1:120.0 2:69.0 3:0.0 4:94.0 
7.48514550417408 1:129.0 2:65.0 3:0.0 4:92.0 
1.5733375531599614 1:118.0 2:71.0 3:0.0 4:49.0 
1.1242614977313425 1:123.0 2:68.0 3:0.0 4:98.0 
-4.037771732332994 1:142.0 2:59.0 3:0.0 4:93.0 
-0.10483047733736163 1:102.0 2:69.0 3:0.0 4:51.0 
1.076111967886134 1:115.0 2:77.0 3:0.0 4:47.0 
8.0 1:133.0 2:75.0 3:0.0 4:91.0 
8.0 1:113.0 2:67.0 3:0.0 4:96.0 
4.732921652586651 1:113.0 2:69.0 3:0.0 4:84.0 
7.6705664086493375 1:112.0 2:68.0 3:0.0 4:91.0 
8.0 1:121.0 2:55.0 3:0.0 4:91.0 
1.1436872527309938 1:133.0 2:56.0 3:0.0 4:53.0 
8.0 1:139.0 2:42.0 3:0.0 4:101.0 
7.319303170241221 1:134.0 2:44.0 3:0.0 4:99.0 
-8.0 1:109.0 2:56.0 3:0.0 4:98.0 
8.0 1:119.0 2:52.0 3:0.0 4:97.0 
8.0 1:122.0 2:46.0 3:0.0 4:98.0 
-8.0 1:111.0 2:54.0 3:0.0 4:98.0 
5.517847944817378 1:91.0 2:68.0 3:0.0 4:74.0 
8.0 1:115.0 2:51.0 3:0.0 4:97.0 
8.0 1:83.0 2:78.0 3:0.0 4:66.0 
8.0 1:73.0 2:93.0 3:265.0 4:0.0 
5.725363587546571 1:36.0 2:94.0 3:165.0 4:0.0 
2.1273696598934673 1:95.0 2:73.0 3:0.0 4:51.0 
0.7275015379906593 1:87.0 2:88.0 3:32700.0 4:0.0 
8.0 1:65.0 2:76.0 3:0.0 4:63.0 
8.0 1:86.0 2:71.0 3:0.0 4:94.0 
1.7372086461048508 1:52.0 2:77.0 3:0.0 4:72.0 
0.6877648105898833 1:53.0 2:81.0 3:0.0 4:60.0 
-3.0742926721194386 1:16.0 2:95.0 3:117.0 4:0.0 
-1.0673003818483506 1:50.0 2:79.0 3:1.0 4:8.0 
-0.0751445349455433 1:108.0 2:75.0 3:19.0 4:43.0 
-0.0746624841754091 1:43.0 2:94.0 3:839.0 4:0.0 
-0.9487579410566185 1:124.0 2:59.0 3:0.0 4:74.0 
1.1995198887786476 1:115.0 2:66.0 3:0.0 4:81.0 
2.013026619306365 1:147.0 2:63.0 3:0.0 4:91.0 
-3.0746014009129334 1:149.0 2:61.0 3:32700.0 4:8.0 
-4.868840019744967 1:116.0 2:76.0 3:0.0 4:79.0 
8.0 1:138.0 2:69.0 3:0.0 4:90.0 
-0.09647800600709644 1:104.0 2:82.0 3:0.0 4:0.0 
4.285774136906976 1:180.0 2:40.0 3:0.0 4:107.0 
0.5557967032398019 1:168.0 2:45.0 3:0.0 4:102.0 
8.0 1:180.0 2:39.0 3:0.0 4:105.0 
8.0 1:152.0 2:44.0 3:0.0 4:107.0 
3.0355700813348587 1:158.0 2:42.0 3:0.0 4:108.0 
-8.0 1:146.0 2:38.0 3:0.0 4:102.0 
-8.0 1:149.0 2:42.0 3:0.0 4:107.0 
-7.9663950396780026 1:128.0 2:48.0 3:0.0 4:81.0 
8.0 1:123.0 2:49.0 3:0.0 4:103.0 
3.7270861775217803 1:110.0 2:54.0 3:0.0 4:99.0 
-5.597043670240416 1:125.0 2:50.0 3:0.0 4:92.0 
-5.1494286927949435 1:101.0 2:59.0 3:0.0 4:67.0 
-3.5876595257111177 1:105.0 2:58.0 3:0.0 4:104.0 
4.699685475737008 1:105.0 2:57.0 3:1.0 4:90.0 
8.0 1:108.0 2:55.0 3:0.0 4:106.0 
-5.427504712106457 1:112.0 2:65.0 3:0.0 4:95.0 
1.7281258736998493 1:108.0 2:72.0 3:30.0 4:84.0 
1.4183719145537685 1:127.0 2:47.0 3:0.0 4:101.0 
8.0 1:124.0 2:52.0 3:0.0 4:78.0 
6.48874281901412 1:94.0 2:69.0 3:0.0 4:56.0 
8.0 1:113.0 2:57.0 3:0.0 4:98.0 
8.0 1:109.0 2:55.0 3:0.0 4:96.0 
5.361816619726925 1:113.0 2:42.0 3:0.0 4:78.0 
8.0 1:108.0 2:57.0 3:0.0 4:95.0 
-8.0 1:115.0 2:51.0 3:0.0 4:96.0 
4.700880009263983 1:106.0 2:70.0 3:11.0 4:71.0 
8.0 1:109.0 2:54.0 3:0.0 4:95.0 
5.817037009648031 1:94.0 2:77.0 3:9.0 4:43.0 
6.7803438743393745 1:178.0 2:57.0 3:0.0 4:112.0 
8.0 1:194.0 2:47.0 3:0.0 4:76.0 
3.0682654064568506 1:161.0 2:65.0 3:0.0 4:87.0 
1.7257704067134605 1:176.0 2:55.0 3:15.0 4:71.0 
8.0 1:148.0 2:73.0 3:11.0 4:61.0 
1.942379948060918 1:149.0 2:67.0 3:2.0 4:44.0 
0.7253318908803466 1:165.0 2:66.0 3:44.0 4:24.0 
8.0 1:136.0 2:74.0 3:236.0 4:72.0 
8.0 1:185.0 2:38.0 3:0.0 4:108.0 
8.0 1:190.0 2:38.0 3:0.0 4:94.0 
0.8717597123765336 1:185.0 2:34.0 3:0.0 4:113.0 
8.0 1:176.0 2:40.0 3:0.0 4:108.0 
8.0 1:196.0 2:34.0 3:0.0 4:112.0 
8.0 1:192.0 2:30.0 3:0.0 4:108.0 
-1.910943147227316 1:207.0 2:31.0 3:0.0 4:102.0 
5.098162766707841 1:197.0 2:22.0 3:0.0 4:101.0 
5.9936594219093315 1:192.0 2:31.0 3:0.0 4:107.0 
6.19208106821535 1:189.0 2:23.0 3:0.0 4:112.0 
-2.8013320679419396 1:175.0 2:26.0 3:0.0 4:110.0 
-2.4390814987468064 1:179.0 2:33.0 3:0.0 4:110.0 
1.3605181433872493 1:189.0 2:33.0 3:0.0 4:104.0 
8.0 1:175.0 2:32.0 3:0.0 4:110.0 
8.0 1:179.0 2:32.0 3:0.0 4:107.0 
8.0 1:163.0 2:38.0 3:0.0 4:110.0 
4.388125010208967 1:181.0 2:26.0 3:0.0 4:109.0 
2.5566980117611027 1:186.0 2:30.0 3:0.0 4:92.0 
1.2915985131501753 1:175.0 2:33.0 3:0.0 4:110.0 
8.0 1:197.0 2:32.0 3:0.0 4:100.0 
-4.163452442417045 1:184.0 2:34.0 3:0.0 4:109.0 
7.861539555178941 1:175.0 2:43.0 3:0.0 4:106.0 
8.0 1:198.0 2:45.0 3:0.0 4:100.0 
8.0 1:182.0 2:54.0 3:0.0 4:81.0 
-6.4169816352087885 1:176.0 2:56.0 3:0.0 4:81.0 
-0.9277776624363185 1:168.0 2:75.0 3:12.0 4:7.0 
4.828801670359028 1:171.0 2:69.0 3:2.0 4:58.0 
8.0 1:175.0 2:60.0 3:0.0 4:85.0 
-2.0560521417373185 1:170.0 2:69.0 3:1.0 4:18.0 
6.814852985584899 1:163.0 2:67.0 3:6.0 4:56.0 
8.0 1:168.0 2:70.0 3:5.0 4:50.0 
8.0 1:202.0 2:44.0 3:0.0 4:123.0 
8.0 1:198.0 2:48.0 3:32700.0 4:90.0 
8.0 1:204.0 2:45.0 3:0.0 4:73.0 
8.0 1:195.0 2:52.0 3:7.0 4:57.0 
6.714432459768931 1:208.0 2:45.0 3:0.0 4:99.0 
8.0 1:225.0 2:34.0 3:0.0 4:95.0 
8.0 1:187.0 2:51.0 3:0.0 4:66.0 
8.0 1:213.0 2:43.0 3:0.0 4:111.0 
8.0 1:129.0 2:62.0 3:32700.0 4:28.0 
